-3
8
-5
6
-8
0
-8
-7
-9
-3
10
-7
0
6
14
-7
4
-4
-8
-5
-3
10
4
6
6
0
2
-9
12
3
10
21
-3
-7
-4
0
-3
8
1
6
-1
-4
11
6
-8
3
4
-6
2
-6
-11
5
6
-4
-5
-6
1
2
9
2
8
3
5
-8
3
-2
-6
-1
-5
-4
-4
-9
8
-3
4
-10
1
-12
9
-6
9
-6
-4
-6
-8
0
2
0
6
8
4
0
-5
-5
8
-3
-1
5
-2
-9
6
2
-1
-8
-11
7
-4
11
10
-4
-3
5
-3
7
5
-8
-8
-1
1
4
-6
0
0
-7
3
2
0
7
1
0
-9
-5
0
-6
8
9
17
4
4
7
14
4
-2
0
-1
6
0
3
-5
-7
11
-2
8
-4
-4
7
6
0
6
-7
8
0
-3
-7
-2
-8
10
1
-8
-7
-1
-10
-8
7
-5
7
0
3
5
-4
-4
5
-8
-5
4
6
-4
-3
7
8
-5
-5
-4
-2
7
6
-9
8
-3
6
-13
-3
-6
-4
7
-6
-2
6
-5
1
5
-9
-7
-6
-8
-1
6
6
2
8
0
3
0
3
-2
-5
2
-5
5
5
-9
11
4
-5
-6
-12
-1
5
8
2
5
-7
-1
7
-6
4
5
-2
2
11
7
7
-5
10
-4
7
-4
-1
11
-9
-9
-6
-6
-7
-1
-9
-1
5
5
-2
5
-1
8
8
-5
6
3
14
-6
-4
-3
-4
-3
-6
4
5
-1
-5
-5
-7
-9
4
-1
-2
8
5
-2
3
0
-4
7
9
-6
-2
-3
-8
7
8
12
5
0
6
3
-4
4
-5
-11
10
-4
-9
-5
7
-3
-7
3
4
-6
-2
10
4
0
6
7
-8
-7
6
-10
-4
-1
8
-10
5
-4
5
-6
0
3
5
-2
8
9
1
0
-7
-3
9
1
5
-6
8
9
-6
-3
1
6
4
6
-7
-3
1
-1
-1
12
-4
-9
7
-6
-8
-5
-2
-6
1
7
9
-2
-8
2
2
-2
6
-5
-3
9
-13
-4
-7
3
-1
5
7
-6
-11
3
7
-9
-7
0
0
3
10
7
0
-3
-1
7
-9
-10
-2
-2
3
-6
5
6
-6
-1
6
-9
-5
0
-2
4
-4
-5
-8
4
8
9
-11
6
-4
-5
1
8
11
-9
-2
-2
-8
-2
-2
6
4
-8
3
-2
0
-8
7
4
7
-2
1
4
2
7
-1
1
-4
4
3
1
9
-2
13
7
1
9
0
-4
4
-9
4
-3
6
-1
4
5
-4
-9
-9
8
-7
7
5
2
2
4
7
16
-6
-3
4
9
9
-4
9
3
6
-7
2
-3
4
