-12
-4
-12
-2
8
-8
-1
-4
5
4
3
18
-23
-9
-8
17
-9
-12
7
11
13
-5
0
-3
-7
9
-6
1
15
-19
6
1
-7
15
5
-4
-2
-20
11
-1
1
-14
-6
14
-4
8
22
-3
0
-14
6
-7
-1
-6
-2
-16
-1
3
-2
10
-11
5
1
-14
0
6
-16
8
-6
3
16
2
11
-4
3
9
2
12
3
-12
3
11
11
-3
6
18
7
4
0
10
-10
-7
6
-18
-9
3
-10
3
0
-9
-16
-3
8
2
0
-1
6
0
-9
-4
-1
2
4
8
4
21
-10
-3
3
-19
8
12
-7
-16
16
4
10
4
-1
10
-2
0
0
5
4
2
-5
-5
16
-11
11
-20
-3
1
3
-16
19
-5
19
-2
4
-2
-9
-7
-11
-3
1
-4
15
10
6
8
6
13
8
-13
9
16
-4
-3
13
-15
3
19
0
-13
11
-8
-22
-2
1
-3
-1
-5
-15
13
9
3
-12
-14
-10
-14
-3
-9
6
-8
7
5
0
3
2
-5
3
-15
-4
-1
-28
-2
-7
-9
-2
1
3
7
10
-10
-12
-1
1
-6
-14
-8
-10
7
2
-2
-2
0
8
-19
4
8
-10
15
-14
-4
5
0
3
-6
2
-12
-13
-11
3
-4
-26
-11
3
-25
4
-5
3
11
12
-12
-2
14
9
-1
1
-7
5
-6
-14
6
-2
-6
-7
5
-9
19
-9
-5
4
-14
6
-17
3
-7
3
-13
8
2
-6
-2
7
-5
-5
-29
4
-1
1
6
4
-1
4
5
-2
-16
-4
16
14
7
-2
-1
-16
-3
-1
21
-20
-1
-4
2
1
-5
-5
-9
-1
-12
-17
7
-7
1
-5
-1
27
-4
-16
0
6
2
3
-1
5
-13
-13
-6
-6
-10
9
-13
-20
2
-8
-10
-6
-1
12
9
-11
2
1
-7
2
-12
16
6
-7
-2
-10
-5
0
5
2
1
17
22
2
0
-4
-2
-21
-12
-8
-3
-9
7
0
3
6
-8
8
-13
4
0
-1
-15
8
1
3
-4
14
-5
6
-4
15
13
10
3
9
-17
-3
1
-17
-4
-5
-3
12
2
12
6
-6
11
-3
-8
-11
7
-6
-7
0
6
-11
-17
3
6
-20
-8
1
3
6
-9
9
0
7
-3
1
8
-21
-11
5
-15
0
7
9
-1
-6
12
-8
5
7
15
-2
6
-4
14
-3
-10
-5
5
2
0
9
-12
4
6
-9
13
10
11
-3
-2
-7
-8
-3
8
2
5
5
4
-2
-11
-5
0
-4
1
-14
-14
4
2
-4
-3
10
-2
-5
-18
-10
5
-2
-17
-14
-11
1
1
12
-10
-8
1
2
-13
7
-17
